digraph Tree {
node [shape=box, style="filled, rounded", color="black", fontname=helvetica] ;
edge [fontname=helvetica] ;
0 [label="worst_concavity <= 16.795\ngini = 0.468\nsamples = 569\nvalue = [357, 212]\nclass = b", fillcolor="#f4ccaf"] ;
1 [label="mean_fractal_dim <= 0.136\ngini = 0.159\nsamples = 379\nvalue = [346, 33]\nclass = b", fillcolor="#e78d4c"] ;
0 -> 1 [labeldistance=2.5, labelangle=45, headlabel="True"] ;
2 [label="std_err_fractal_dim <= 0.157\ngini = 0.03\nsamples = 333\nvalue = [328, 5]\nclass = b", fillcolor="#e5833c"] ;
1 -> 2 ;
3 [label="gini = 0.0\nsamples = 1\nvalue = [0, 1]\nclass = m", fillcolor="#399de5"] ;
2 -> 3 ;
4 [label="std_err_smoothness <= 38.605\ngini = 0.024\nsamples = 332\nvalue = [328, 4]\nclass = b", fillcolor="#e5833b"] ;
2 -> 4 ;
5 [label="worst_smoothness <= 0.003\ngini = 0.012\nsamples = 319\nvalue = [317, 2]\nclass = b", fillcolor="#e5823a"] ;
4 -> 5 ;
6 [label="std_err_radius <= 19.9\ngini = 0.245\nsamples = 7\nvalue = [6, 1]\nclass = b", fillcolor="#e9965a"] ;
5 -> 6 ;
7 [label="gini = 0.0\nsamples = 6\nvalue = [6, 0]\nclass = b", fillcolor="#e58139"] ;
6 -> 7 ;
8 [label="gini = 0.0\nsamples = 1\nvalue = [0, 1]\nclass = m", fillcolor="#399de5"] ;
6 -> 8 ;
9 [label="mean_concave_pts <= 33.27\ngini = 0.006\nsamples = 312\nvalue = [311, 1]\nclass = b", fillcolor="#e5813a"] ;
5 -> 9 ;
10 [label="gini = 0.0\nsamples = 292\nvalue = [292, 0]\nclass = b", fillcolor="#e58139"] ;
9 -> 10 ;
11 [label="mean_concave_pts <= 33.56\ngini = 0.095\nsamples = 20\nvalue = [19, 1]\nclass = b", fillcolor="#e68843"] ;
9 -> 11 ;
12 [label="gini = 0.0\nsamples = 1\nvalue = [0, 1]\nclass = m", fillcolor="#399de5"] ;
11 -> 12 ;
13 [label="gini = 0.0\nsamples = 19\nvalue = [19, 0]\nclass = b", fillcolor="#e58139"] ;
11 -> 13 ;
14 [label="std_err_smoothness <= 39.15\ngini = 0.26\nsamples = 13\nvalue = [11, 2]\nclass = b", fillcolor="#ea985d"] ;
4 -> 14 ;
15 [label="gini = 0.0\nsamples = 1\nvalue = [0, 1]\nclass = m", fillcolor="#399de5"] ;
14 -> 15 ;
16 [label="worst_texture <= 0.06\ngini = 0.153\nsamples = 12\nvalue = [11, 1]\nclass = b", fillcolor="#e78c4b"] ;
14 -> 16 ;
17 [label="gini = 0.0\nsamples = 1\nvalue = [0, 1]\nclass = m", fillcolor="#399de5"] ;
16 -> 17 ;
18 [label="gini = 0.0\nsamples = 11\nvalue = [11, 0]\nclass = b", fillcolor="#e58139"] ;
16 -> 18 ;
19 [label="mean_concave_pts <= 25.67\ngini = 0.476\nsamples = 46\nvalue = [18, 28]\nclass = m", fillcolor="#b8dcf6"] ;
1 -> 19 ;
20 [label="worst_concave_pts <= 810.3\ngini = 0.332\nsamples = 19\nvalue = [15, 4]\nclass = b", fillcolor="#eca36e"] ;
19 -> 20 ;
21 [label="mean_symmetry <= 0.179\ngini = 0.124\nsamples = 15\nvalue = [14, 1]\nclass = b", fillcolor="#e78a47"] ;
20 -> 21 ;
22 [label="gini = 0.0\nsamples = 14\nvalue = [14, 0]\nclass = b", fillcolor="#e58139"] ;
21 -> 22 ;
23 [label="gini = 0.0\nsamples = 1\nvalue = [0, 1]\nclass = m", fillcolor="#399de5"] ;
21 -> 23 ;
24 [label="std_err_concave_pts <= 110.85\ngini = 0.375\nsamples = 4\nvalue = [1, 3]\nclass = m", fillcolor="#7bbeee"] ;
20 -> 24 ;
25 [label="gini = 0.0\nsamples = 3\nvalue = [0, 3]\nclass = m", fillcolor="#399de5"] ;
24 -> 25 ;
26 [label="gini = 0.0\nsamples = 1\nvalue = [1, 0]\nclass = b", fillcolor="#e58139"] ;
24 -> 26 ;
27 [label="std_err_perimeter <= 0.054\ngini = 0.198\nsamples = 27\nvalue = [3, 24]\nclass = m", fillcolor="#52a9e8"] ;
19 -> 27 ;
28 [label="std_err_radius <= 20.455\ngini = 0.5\nsamples = 6\nvalue = [3, 3]\nclass = b", fillcolor="#ffffff"] ;
27 -> 28 ;
29 [label="gini = 0.0\nsamples = 3\nvalue = [3, 0]\nclass = b", fillcolor="#e58139"] ;
28 -> 29 ;
30 [label="gini = 0.0\nsamples = 3\nvalue = [0, 3]\nclass = m", fillcolor="#399de5"] ;
28 -> 30 ;
31 [label="gini = 0.0\nsamples = 21\nvalue = [0, 21]\nclass = m", fillcolor="#399de5"] ;
27 -> 31 ;
32 [label="mean_concave_pts <= 19.91\ngini = 0.109\nsamples = 190\nvalue = [11, 179]\nclass = m", fillcolor="#45a3e7"] ;
0 -> 32 [labeldistance=2.5, labelangle=-45, headlabel="False"] ;
33 [label="mean_fractal_dim <= 0.145\ngini = 0.498\nsamples = 17\nvalue = [9, 8]\nclass = b", fillcolor="#fcf1e9"] ;
32 -> 33 ;
34 [label="gini = 0.0\nsamples = 9\nvalue = [9, 0]\nclass = b", fillcolor="#e58139"] ;
33 -> 34 ;
35 [label="gini = 0.0\nsamples = 8\nvalue = [0, 8]\nclass = m", fillcolor="#399de5"] ;
33 -> 35 ;
36 [label="mean_symmetry <= 0.088\ngini = 0.023\nsamples = 173\nvalue = [2, 171]\nclass = m", fillcolor="#3b9ee5"] ;
32 -> 36 ;
37 [label="gini = 0.0\nsamples = 1\nvalue = [1, 0]\nclass = b", fillcolor="#e58139"] ;
36 -> 37 ;
38 [label="worst_symmetry <= 0.18\ngini = 0.012\nsamples = 172\nvalue = [1, 171]\nclass = m", fillcolor="#3a9ee5"] ;
36 -> 38 ;
39 [label="worst_smoothness <= 0.007\ngini = 0.375\nsamples = 4\nvalue = [1, 3]\nclass = m", fillcolor="#7bbeee"] ;
38 -> 39 ;
40 [label="gini = 0.0\nsamples = 3\nvalue = [0, 3]\nclass = m", fillcolor="#399de5"] ;
39 -> 40 ;
41 [label="gini = 0.0\nsamples = 1\nvalue = [1, 0]\nclass = b", fillcolor="#e58139"] ;
39 -> 41 ;
42 [label="gini = 0.0\nsamples = 168\nvalue = [0, 168]\nclass = m", fillcolor="#399de5"] ;
38 -> 42 ;
}