digraph Tree {
node [shape=box, style="filled, rounded", color="black", fontname=helvetica] ;
edge [fontname=helvetica] ;
0 [label="mean_perimeter <= 0.342\ngini = 0.435\nsamples = 75\nvalue = [0.68, 0.32]\nclass = b", fillcolor="#f1bc96"] ;
1 [label="gini = 0.105\nsamples = 54\nvalue = [0.68, 0.04]\nclass = b", fillcolor="#e78845"] ;
0 -> 1 [labeldistance=2.5, labelangle=45, headlabel="True"] ;
2 [label="gini = -0.0\nsamples = 21\nvalue = [0.0, 0.28]\nclass = m", fillcolor="#399de5"] ;
0 -> 2 [labeldistance=2.5, labelangle=-45, headlabel="False"] ;
}